[
    {
        "width": 60,
        "height": 60,
        "x": 60,
        "y": 811.248573764573,
        "velY": 700,
        "brain": {
            "inputLayer": [
                0.27057113387238274,
                -0.31904761904761936,
                0.5404182576361167,
                0.7404182576361167,
                0.07717294926580592
            ],
            "hiddenLayer": [
                -0.8552099488990488,
                -0.6986864319081377,
                0.14614513450576805
            ],
            "outputLayer": [
                -0.6619924331931654
            ],
            "weights": [
                -0.1705436367052111,
                0.714034255034619,
                -0.9147389968166175,
                -0.07009231352500578,
                0.762927173043312,
                -0.5139171318241202,
                0.3097818353014201,
                -0.8876857033972132,
                0.7006320804157711,
                -0.9499077215016283,
                -0.24940450156615457,
                -0.8878196333377755,
                0.8779069521225726,
                0.7637791622699304,
                0.2952805577507567,
                -0.9056791272847162,
                0.2994050393985259,
                0.6412451812120019,
                0.9088278637702114,
                -0.28936296091639546,
                0.5900748675140166,
                -0.30752398480645304
            ]
        },
        "alive": false,
        "score": 2.4519896687862106
    },
    {
        "width": 60,
        "height": 60,
        "x": 60,
        "y": 805.8319154588356,
        "velY": 700,
        "brain": {
            "inputLayer": [
                0.26840277777777727,
                -0.34523809523809557,
                0.22894811075866925,
                0.42894811075866923,
                0.038333333333335204
            ],
            "hiddenLayer": [
                0.7578317794563804,
                0.4402870667406099,
                -0.27572194997739524
            ],
            "outputLayer": [
                -0.1743961508015099
            ],
            "weights": [
                -0.31134409890951154,
                -0.6051808555903573,
                -0.1238797284712494,
                1.1023993123587705,
                -0.48184623625298717,
                0.4396967220768153,
                -1.1987531369950193,
                -0.43631287270911523,
                0.9784328257556534,
                -1.077379983092061,
                0.28588017707049684,
                0.8708747137167652,
                1.1110176102331493,
                0.9009636905257361,
                0.7738420494825613,
                -0.05199596559659314,
                -0.12615201518545627,
                -0.4202295846305151,
                -0.3448055248522226,
                -0.8270141251712948,
                -0.38643800329380995,
                0.3426816063529281
            ]
        },
        "alive": false,
        "score": 2.5666666666666624
    },
    {
        "width": 60,
        "height": 60,
        "x": 60,
        "y": 803.6111111111105,
        "velY": 700,
        "brain": {
            "inputLayer": [
                0.41244791666666586,
                -0.24047619047619073,
                0.1754487772863016,
                0.37544877728630155,
                0.07916666666666858
            ],
            "hiddenLayer": [
                -0.13625022696592146,
                -0.4346053647339992,
                -0.4019244783808387
            ],
            "outputLayer": [
                -0.15034993742381123
            ],
            "weights": [
                1.162165186658972,
                -0.12022963902944728,
                -0.40445540086366605,
                -0.02270792269336952,
                -0.0789088320680742,
                -0.5596140255363911,
                -0.8295452251208071,
                -1.0962039034396989,
                -0.03476728683818431,
                1.0602575201778681,
                -0.16481288672822125,
                -0.7659521267259415,
                -1.368327822618691,
                -1.257581246928187,
                -1.3575411519563427,
                0.3605523952091152,
                0.8943352634226835,
                -0.13198803149602978,
                0.8671347698520502,
                -0.3764104319464139,
                0.06857882419496208,
                -0.1693776231468238
            ]
        },
        "alive": false,
        "score": 4.24999999999999
    },
    {
        "width": 60,
        "height": 60,
        "x": 60,
        "y": 805.4340177674507,
        "velY": 700,
        "brain": {
            "inputLayer": [
                0.2627300388635047,
                -0.35833335572552427,
                0.5106614393983304,
                0.7106614393983304,
                0.07625000498735346
            ],
            "hiddenLayer": [
                0.6124202491881734,
                0.9735463172398413,
                0.6608375955863851
            ],
            "outputLayer": [
                -0.4488493244872023
            ],
            "weights": [
                0.5067349989244769,
                0.14955961456813793,
                0.9742808386195825,
                0.35401441089530494,
                0.12926996555052028,
                -0.12572621244461368,
                0.13455242343158713,
                -0.38743497781548086,
                0.2931596389265385,
                1.2937215645621134,
                -0.22669378713149868,
                0.93009620130529,
                -0.337916801797995,
                -0.9466367891143244,
                -0.5960628955904814,
                -0.42029474781741705,
                0.2897450726662294,
                1.1248490346359092,
                0.4505997162256261,
                0.217402407824556,
                -0.8254499759698577,
                -0.42537768709576884
            ]
        },
        "alive": false,
        "score": 4.258333319083747
    },
    {
        "width": 60,
        "height": 60,
        "x": 60,
        "y": 805.9027777777778,
        "velY": 700,
        "brain": {
            "inputLayer": [
                0.2813715277777775,
                -0.5809523809523811,
                0.2360164115154864,
                0.4360164115154864,
                0.04416666666666855
            ],
            "hiddenLayer": [
                0.6150454171998883,
                0.44718017770186314,
                -0.38557082189164854
            ],
            "outputLayer": [
                -0.825451999352969
            ],
            "weights": [
                -1.1220742167579962,
                -0.5583397696058223,
                0.3946539973767442,
                1.0468466868588622,
                0.7808604101882899,
                0.12427225899934546,
                -1.8776232040718714,
                -1.484191237271433,
                0.37037450573080033,
                1.0319563841725574,
                1.395681818880835,
                -0.45177166486255294,
                0.8257301071865693,
                0.1816720462189585,
                0.3904472747043928,
                0.4534459003842577,
                1.0644891106140297,
                -0.8702577928534145,
                -1.454063446613159,
                -0.5258621765598783,
                -0.066253138723817,
                -0.06976663996871735
            ]
        },
        "alive": false,
        "score": 6.1499999999999835
    },
    {
        "width": 60,
        "height": 60,
        "x": 60,
        "y": 801.5224298683765,
        "velY": 700,
        "brain": {
            "inputLayer": [
                0.34442039844658157,
                0.1261904761904759,
                0.18324126108507865,
                0.38324126108507867,
                0.04218333109591921
            ],
            "hiddenLayer": [
                -0.30813920657197535,
                -0.6146562592942907,
                -0.35619279254484254
            ],
            "outputLayer": [
                -0.30998750205134956
            ],
            "weights": [
                -2.442958802163722,
                -1.117055990575055,
                1.5270552034161495,
                1.5568009558203921,
                0.9906233080113345,
                -0.2543590941599727,
                -0.82871091954639,
                -2.2057463647938196,
                1.4879048091573364,
                -0.7652843788652011,
                1.938454410802979,
                -0.2137291389033409,
                -0.04594343711652038,
                -1.400473639076216,
                1.4794989719151825,
                1.306339913162266,
                0.8452946401791852,
                -0.9873743253731073,
                -1.8924096633154925,
                0.14035888631877858,
                0.21525574188427066,
                -0.7407121829939638
            ]
        },
        "alive": false,
        "score": 6.155666673059267
    },
    {
        "width": 60,
        "height": 60,
        "x": 60,
        "y": 805.3245241935841,
        "velY": 700,
        "brain": {
            "inputLayer": [
                0.807766766353091,
                1,
                0.6582366123248383,
                0.8582366123248383,
                0.0675000000000019
            ],
            "hiddenLayer": [
                -0.9343164066563752,
                0.3692306831412942,
                -0.9942192090435084
            ],
            "outputLayer": [
                -0.018885708997691996
            ],
            "weights": [
                -2.6905539337986397,
                -1.3507197880216653,
                1.7076540233524673,
                1.4029746846926434,
                0.8885354271723414,
                -0.555370988094247,
                -2.630789477675888,
                0.08030288022487753,
                1.820646483667824,
                0.8904305525305287,
                0.36766921494941807,
                0.44485953437414794,
                -0.7550862931304942,
                -1.057674826769601,
                0.07836707181204039,
                -0.9041855428839582,
                -0.04413079945430698,
                -0.5267253504764517,
                -1.1142334582630098,
                -1.157803257797769,
                1.3202127542959088,
                0.680142812464227
            ]
        },
        "alive": false,
        "score": 7.873000022861932
    },
    {
        "width": 60,
        "height": 60,
        "x": 60,
        "y": 809.8194444444429,
        "velY": 700,
        "brain": {
            "inputLayer": [
                0.24291666666666434,
                -0.24047619047619073,
                0.20427212715947768,
                0.4042721271594777,
                -0.05499999999999814
            ],
            "hiddenLayer": [
                0.08091592270301255,
                -0.6178173973385952,
                -0.6774420309528216
            ],
            "outputLayer": [
                -0.47061784367717274
            ],
            "weights": [
                -3.2057304950643566,
                -0.4650172562893742,
                1.4791280266935878,
                2.2221381860028266,
                0.4203551120743505,
                -0.42938062504248387,
                -1.0712293239202182,
                -0.5013679106196416,
                0.806323237507004,
                -0.24535712412991995,
                1.1047304609282755,
                -0.5865730908358466,
                -0.4961278799569806,
                -1.863978925369187,
                1.0941377840297797,
                -0.6434454740649684,
                1.433481049061159,
                -1.0366293657873504,
                -0.9819857467367956,
                -0.68027738400721,
                0.637800547535486,
                -0.4196196765817264
            ]
        },
        "alive": false,
        "score": 10.033333333333411
    },
    {
        "width": 60,
        "height": 60,
        "x": 60,
        "y": 802.3691001569698,
        "velY": 700,
        "brain": {
            "inputLayer": [
                0.18040929186287863,
                -0.5547619047619049,
                0.1428261914140574,
                0.3428261914140574,
                -0.08416666666666481
            ],
            "hiddenLayer": [
                0.7464960116188674,
                0.7388805531414914,
                -0.9220766000622346
            ],
            "outputLayer": [
                -0.9984147767546391
            ],
            "weights": [
                -5.617079524445172,
                -1.511037208659637,
                3.579979335386475,
                2.797204539007696,
                1.8091734989515973,
                -0.17789661818163993,
                -1.1099297230124754,
                0.23938557601586385,
                3.2588120199302897,
                -1.0050980073921163,
                0.3861379242782279,
                1.1926832236948406,
                -1.220086869269414,
                -2.893836729290515,
                0.28590757293253977,
                -0.7136391269993325,
                1.1458612586866468,
                -2.6877305265972558,
                -3.03682223022499,
                -3.1391355815573463,
                -0.5493765629324898,
                0.5101625007342354
            ]
        },
        "alive": false,
        "score": 10.113333360881951
    },
    {
        "width": 60,
        "height": 60,
        "x": 60,
        "y": 800.1634828246844,
        "velY": 700,
        "brain": {
            "inputLayer": [
                0.5263328257530776,
                -0.24047619047619073,
                0.4860491990169394,
                0.6860491990169393,
                0.0028666697086203907
            ],
            "hiddenLayer": [
                0.8671298485415935,
                0.9985528860848347,
                0.6975989310395112
            ],
            "outputLayer": [
                -0.9999157636871446
            ],
            "weights": [
                -8.560648419291667,
                -0.6088039907765612,
                5.319290559590923,
                4.109938523872332,
                1.4928356917235401,
                0.2714036653196841,
                -2.9345041900419275,
                -1.494879292877913,
                5.231768538205317,
                -0.1786546338929731,
                -2.9225790766928217,
                2.388393770451274,
                4.8379259596228135,
                -1.3898189694423586,
                3.5172867121418605,
                -1.5840903614762336,
                -3.5239204670505395,
                -2.6306781822908194,
                -5.251715420659136,
                -1.5388229625507308,
                0.22611515634857815,
                0.8952828552996821
            ]
        },
        "alive": false,
        "score": 11.667999991308868
    },
    {
        "width": 60,
        "height": 60,
        "x": 60,
        "y": 810.6706015584499,
        "velY": 700,
        "brain": {
            "inputLayer": [
                0.6599500450076593,
                0.3975238467788411,
                0.502805020956167,
                0.7028050209561669,
                -0.037150001213848954
            ],
            "hiddenLayer": [
                0.3927895026992477,
                0.9357289240437927,
                -0.04214357919509448
            ],
            "outputLayer": [
                -0.9163691465185884
            ],
            "weights": [
                -7.3999013593502445,
                -0.4655579016030136,
                4.6811117761999315,
                4.274050989478559,
                0.7409140569344288,
                0.15374373006287634,
                -2.787209340357551,
                -0.9866084515660201,
                4.5323230859489705,
                -0.2794872934591379,
                -2.9898286995390917,
                1.7406622151688744,
                3.9151312528236706,
                -0.7417110149950827,
                2.6920445919701503,
                -1.4810968543271796,
                -3.584800682424948,
                -2.776938368030719,
                -5.093775423832282,
                -1.2437030164500331,
                0.6650058826089189,
                1.6266885828885076
            ]
        },
        "alive": false,
        "score": 11.774666707652392
    },
    {
        "width": 60,
        "height": 60,
        "x": 60,
        "y": 800.9980262759404,
        "velY": 700,
        "brain": {
            "inputLayer": [
                0.7875843384004808,
                1,
                0.6380536433982374,
                0.8380536433982374,
                0.07916666666666858
            ],
            "hiddenLayer": [
                0.3640451161707048,
                0.9383354458336715,
                -0.29784764199317165
            ],
            "outputLayer": [
                -0.1123846892195436
            ],
            "weights": [
                -9.652908729597526,
                -0.3517272410082073,
                5.951160265746876,
                3.4720328426771854,
                3.5950252960486737,
                1.34423268875703,
                -4.139133035650056,
                -0.2916626306169623,
                5.20281071249474,
                0.10902126051285843,
                -3.5546208793216505,
                2.145886268269736,
                4.375108697626645,
                -1.6676422511914983,
                4.956991168800398,
                -2.6820497194600557,
                -3.8843100861569497,
                -2.6928977407402543,
                -4.912338687007143,
                -1.1390714642399402,
                -0.7388957404161305,
                2.524204225264139
            ]
        },
        "alive": false,
        "score": 15.044000019412849
    },
    {
        "width": 60,
        "height": 60,
        "x": 60,
        "y": 804.5903261602176,
        "velY": 700,
        "brain": {
            "inputLayer": [
                0.7577344354780498,
                0.5452380952380949,
                0.6032853461833496,
                0.8032853461833497,
                -0.04916666666666481
            ],
            "hiddenLayer": [
                0.3434182253466235,
                -0.3033772223838034,
                0.27973387058241234
            ],
            "outputLayer": [
                -0.16018456383372096
            ],
            "weights": [
                -6.855852528966718,
                -0.48627286466954023,
                5.11289002574204,
                2.4817182926752652,
                0.9359721825530161,
                0.7859717574230689,
                -3.785457983045231,
                -3.0808174161266946,
                2.6094638601157856,
                0.20090549587465723,
                -3.7355763095575076,
                2.315614312058119,
                2.5369200874903672,
                -1.4341282510288413,
                4.63103905952423,
                -2.054475087918429,
                -5.63918606365449,
                -2.2737452789913304,
                -5.333085949596613,
                0.01506786255582937,
                0.3683086212781339,
                1.5714456478461694
            ]
        },
        "alive": false,
        "score": 17.20900002848378
    },
    {
        "width": 60,
        "height": 60,
        "x": 60,
        "y": 803.4993855615857,
        "velY": 700,
        "brain": {
            "inputLayer": [
                0.6872908986186483,
                1,
                0.5250593661640852,
                0.7250593661640852,
                0.07916666666666858
            ],
            "hiddenLayer": [
                0.24423550072498107,
                0.9991830758661112,
                -0.8644664348417006
            ],
            "outputLayer": [
                -0.07630980510914767
            ],
            "weights": [
                -7.942476533628068,
                -0.06567668341547761,
                5.147414436991141,
                3.4394607935031405,
                0.6195990320755049,
                0.5281788758227692,
                -1.955681467836392,
                -0.617435683839894,
                5.6413485064360795,
                1.4012675212274548,
                -1.759003579542445,
                2.0241186763820034,
                3.5834493717542557,
                -1.2484601805505762,
                3.3667562558427457,
                -2.326526717435562,
                -4.488903596709943,
                -2.250672779310079,
                -3.7625112280105752,
                -0.6274339706411318,
                -0.22966328617520215,
                1.2708655693617326
            ]
        },
        "alive": false,
        "score": 22.242000136244656
    },
    {
        "width": 60,
        "height": 60,
        "x": 60,
        "y": 803.2013486964269,
        "velY": 700,
        "brain": {
            "inputLayer": [
                0.5206857136483113,
                -0.13571428571428595,
                0.4820255315937095,
                0.6820255315937095,
                -0.03749999999999814
            ],
            "hiddenLayer": [
                0.9007531369760983,
                0.9996502656185895,
                0.9813053739941663
            ],
            "outputLayer": [
                -0.9999951466391125
            ],
            "weights": [
                -11.985837365735499,
                -0.7376751288584356,
                9.220023766643726,
                3.293642175494652,
                4.2118383348989,
                1.084247834882812,
                -2.7384979889712744,
                -0.12371717279562877,
                7.07739407200439,
                -0.4905108772835287,
                -1.1541549974745426,
                2.6145365315123015,
                4.220934911459575,
                -6.8221837548558195,
                -1.0731784582836852,
                -3.346696452036335,
                -5.660595824602315,
                1.7955487398022159,
                -6.182797430901713,
                -6.513464050648101,
                0.005302818483936322,
                5.6106646250355
            ]
        },
        "alive": false,
        "score": 22.57533341267413
    },
    {
        "width": 60,
        "height": 60,
        "x": 60,
        "y": 809.3414387620397,
        "velY": 700,
        "brain": {
            "inputLayer": [
                0.7643156873414385,
                1,
                0.5899994999003049,
                0.7899994999003048,
                0.07916666666666858
            ],
            "hiddenLayer": [
                0.0541716888956487,
                0.9982876275083112,
                -0.9999999606995574
            ],
            "outputLayer": [
                0.7203619045328629
            ],
            "weights": [
                -12.524801426249283,
                -0.49317210198430206,
                7.912272160771838,
                5.046604959244969,
                3.611156634863268,
                1.1793638400134252,
                -2.2990403951234955,
                -0.12810140459561659,
                6.454677256711506,
                -0.7011762122673451,
                0.6037724257784356,
                2.114250935394213,
                1.0619042122824618,
                -6.719636987513354,
                -2.9718093827623235,
                -2.8326661599469753,
                -6.625361052242846,
                1.5510969804338874,
                -6.190218329604625,
                -4.447061622849188,
                -0.4836754841741966,
                5.199502566402165
            ]
        },
        "alive": false,
        "score": 33.03633336511671
    },
    {
        "width": 60,
        "height": 60,
        "x": 60,
        "y": 805.5415285888391,
        "velY": 700,
        "brain": {
            "inputLayer": [
                0.6535067718471599,
                -0.057142857142857405,
                0.6159968297800037,
                0.8159968297800038,
                -0.04916666666666481
            ],
            "hiddenLayer": [
                0.9372136097583098,
                0.998509139210725,
                -0.043595507414865495
            ],
            "outputLayer": [
                -0.9999965230430223
            ],
            "weights": [
                -13.584457939516312,
                -0.5649511492179018,
                8.213582848508395,
                5.163254170662164,
                3.4687159069848286,
                1.4576913018153541,
                -2.471589928160258,
                -0.987899928229137,
                6.686506881801968,
                -0.7609195280662291,
                0.8954339786610552,
                1.7052172594434107,
                1.6482855098359392,
                -7.948567727486923,
                -2.3534441776868817,
                -2.443982707253652,
                -6.7567616555221175,
                1.5367960751563925,
                -6.946962851560119,
                -5.281832631735205,
                -0.6076962356608162,
                5.127004199537533
            ]
        },
        "alive": false,
        "score": 42.414333363744845
    },
    {
        "width": 60,
        "height": 60,
        "x": 60,
        "y": 808.5764882519751,
        "velY": 700,
        "brain": {
            "inputLayer": [
                0.5163456103149683,
                1,
                0.6151111241975523,
                0.8151111241975524,
                0.07916666666666858
            ],
            "hiddenLayer": [
                0.9965974327791832,
                0.999990727340423,
                0.9907207793004594
            ],
            "outputLayer": [
                -0.999998542043596
            ],
            "weights": [
                -12.433408935545321,
                -0.4486530108990072,
                9.651353354928933,
                2.662320467323519,
                2.64503808197295,
                1.7397832043177193,
                -3.470735624649301,
                -1.9349190758047405,
                5.820205492416427,
                1.3239894604403635,
                -1.0914344772027007,
                5.294943159698818,
                6.886785195679894,
                -4.649692431217268,
                0.4491197226108081,
                4.1315460248319855,
                -13.254954059169336,
                1.183391236412916,
                -8.878662394427742,
                -3.363643304461779,
                -0.4281959421195636,
                5.570476242023154
            ]
        },
        "alive": false,
        "score": 58.24300007391423
    },
    {
        "width": 60,
        "height": 60,
        "x": 60,
        "y": 800.405351251538,
        "velY": 700,
        "brain": {
            "inputLayer": [
                0.46628115319455643,
                1,
                0.497886332889435,
                0.697886332889435,
                0.07916666666666858
            ],
            "hiddenLayer": [
                0.9999651602071873,
                0.9999999912998586,
                -0.5152171935323122
            ],
            "outputLayer": [
                -0.999999999999977
            ],
            "weights": [
                -26.296201476832653,
                -0.9156425229095824,
                16.499743787468642,
                10.929479278834393,
                5.1186744120254115,
                2.408246195622959,
                -0.7003264167794119,
                -4.895428318286694,
                14.922192377899917,
                1.6228291048992602,
                -1.1667318257022354,
                6.378774569605085,
                7.007708721129862,
                -0.5392193167463464,
                -2.0638534077913118,
                -2.8499153733347358,
                -5.97156998204614,
                0.19108094661190012,
                -17.582055638440046,
                1.0368527586949887,
                6.771140568109837,
                3.9857483404899807
            ]
        },
        "alive": false,
        "score": 60.039333451195056
    },
    {
        "width": 60,
        "height": 60,
        "x": 60,
        "y": 810.0786451870325,
        "velY": 700,
        "brain": {
            "inputLayer": [
                0.7546121953726792,
                1,
                0.6067886626650723,
                0.8067886626650721,
                0.05000000000000188
            ],
            "hiddenLayer": [
                0.4627475496099294,
                0.9999999999965263,
                0.1827409280958834
            ],
            "outputLayer": [
                -0.9975925680518397
            ],
            "weights": [
                -26.839595862801662,
                -0.6292144941044775,
                17.10072806125969,
                11.081418280694251,
                4.009135337982175,
                1.8661554046321898,
                -1.8071652802307299,
                -2.943026603650437,
                15.767239630559141,
                2.1519980933162812,
                -0.765848909564818,
                6.580912880282974,
                6.467889251391238,
                -2.2278706469275376,
                -1.9268856316616803,
                -0.11622717609202526,
                -4.633524700577741,
                -0.9734012528365372,
                -18.03364794792574,
                2.948745712253351,
                4.248608805036311,
                1.259317259624247
            ]
        },
        "alive": false,
        "score": 63.719666732254474
    },
    {
        "width": 60,
        "height": 60,
        "x": 60,
        "y": 805.1555584544676,
        "velY": 700,
        "brain": {
            "inputLayer": [
                0.2611493091791953,
                -0.18809523809523832,
                0.22183200738499992,
                0.42183200738499993,
                -0.08089999880166461
            ],
            "hiddenLayer": [
                0.9985423163365549,
                0.9999999999999478,
                0.4731620329313105
            ],
            "outputLayer": [
                -0.9999999999999998
            ],
            "weights": [
                -30.1412582694253,
                -0.5170188366125454,
                17.93951896842723,
                12.500138657208664,
                3.6807938742828243,
                2.431040481058321,
                3.7806966955316166,
                -1.1139707838454802,
                18.900028228531642,
                10.016506636027406,
                1.8366500288456205,
                6.17230309636934,
                4.86842539031569,
                4.014666635098871,
                3.4091171988483615,
                -0.2175858713338985,
                -4.942742918299083,
                -1.0664440867818243,
                -21.052176168678994,
                -6.034869470878234,
                4.450274547944038,
                6.534495545482648
            ]
        },
        "alive": false,
        "score": 73.09800010378986
    },
    {
        "width": 60,
        "height": 60,
        "x": 60,
        "y": 807.4347480494177,
        "velY": 700,
        "brain": {
            "inputLayer": [
                0.5688941295062168,
                -0.10952380952380977,
                0.5313337947041336,
                0.7313337947041336,
                -0.08999999999999815
            ],
            "hiddenLayer": [
                0.9977411708697925,
                1,
                0.9975896268100625
            ],
            "outputLayer": [
                -0.9999999999975785
            ],
            "weights": [
                -29.578795161903376,
                -0.5330534066139074,
                17.605817172826136,
                12.152106125085364,
                5.286330621906333,
                2.3952420140895345,
                5.5473997957852355,
                -4.1147242278384955,
                13.965815424614316,
                9.89149652755037,
                -0.5004350202058359,
                6.848934603625857,
                2.2165025256636417,
                4.552962490360837,
                -4.591544476270953,
                3.12302745394579,
                -6.44627452995333,
                2.1731625252596762,
                -18.248530489781597,
                -7.2056478487610445,
                7.971242691104303,
                3.7410435683577887
            ]
        },
        "alive": false,
        "score": 83.92733348992512
    },
    {
        "width": 60,
        "height": 60,
        "x": 60,
        "y": 808.221922839044,
        "velY": 700,
        "brain": {
            "inputLayer": [
                0.26621490354880467,
                0.4666666666666664,
                0.11013251321630428,
                0.31013251321630425,
                0.03541664919515702
            ],
            "hiddenLayer": [
                0.1616807259245826,
                0.9999999999999999,
                0.999963315065834
            ],
            "outputLayer": [
                -0.5113063666141674
            ],
            "weights": [
                -38.36528989689742,
                0.011997284056403545,
                14.403215040765154,
                23.95603931714812,
                6.742068872371707,
                1.1163348348302609,
                -6.821642163968595,
                -7.151924092562143,
                8.948606645013463,
                24.22337642128566,
                -8.020083134613035,
                15.79657370220642,
                -1.3962987851614148,
                -2.048258131305234,
                -4.764397601440149,
                2.6877785195038237,
                -4.427284715128009,
                6.628653124405806,
                -12.133171723553145,
                -6.347504520809434,
                3.706267271256584,
                4.038576264403779
            ]
        },
        "alive": false,
        "score": 85.3693334585314
    },
    {
        "width": 60,
        "height": 60,
        "x": 60,
        "y": 801.048346697692,
        "velY": 700,
        "brain": {
            "inputLayer": [
                0.728550016705448,
                1,
                0.5772156775644897,
                0.7772156775644896,
                0.0675000000000019
            ],
            "hiddenLayer": [
                0.6282521962660904,
                0.9999999999999104,
                0.9999999999873966
            ],
            "outputLayer": [
                -0.7476979995138745
            ],
            "weights": [
                -42.13331146651516,
                -0.6949999915973448,
                18.288817881642338,
                24.294037014644147,
                6.828224695586423,
                2.230544137343993,
                -13.216158078863518,
                -8.391286638483027,
                8.088842186686124,
                18.83302675132935,
                -4.858420107117371,
                14.409861696205219,
                2.1369121120881718,
                6.176657954964767,
                -3.8458354694298222,
                5.399198215635398,
                -5.994918012203966,
                3.589789039887644,
                -10.314469019931794,
                -2.13895680182479,
                4.199905450632453,
                3.451425172576252
            ]
        },
        "alive": false,
        "score": 112.27366673570104
    },
    {
        "width": 60,
        "height": 60,
        "x": 60,
        "y": 805.7937675423983,
        "velY": 700,
        "brain": {
            "inputLayer": [
                0.48331859831688617,
                1,
                0.3350102535683886,
                0.5350102535683886,
                0.07333333333333523
            ],
            "hiddenLayer": [
                0.5144180487125976,
                0.9999999999999933,
                0.9999999999999999
            ],
            "outputLayer": [
                -0.9997039438853801
            ],
            "weights": [
                -52.129560401192464,
                -0.27087948663349026,
                16.059381366596533,
                36.05931133898261,
                7.1429560622115185,
                0.8388092693176321,
                -9.932764186238781,
                -2.155891730368249,
                13.400935838955498,
                27.768247217280607,
                -5.8097563423583525,
                4.708835999463485,
                3.3582242774081124,
                0.5313248878639274,
                -2.391591453613927,
                9.76202778800465,
                -5.515510000224906,
                12.770193567631186,
                -10.67669362996422,
                3.322259911310692,
                5.312335973847322,
                -7.551292324696767
            ]
        },
        "alive": false,
        "score": 115.86100011942192
    },
    {
        "width": 60,
        "height": 60,
        "x": 60,
        "y": 801.7692902889937,
        "velY": 700,
        "brain": {
            "inputLayer": [
                0.5650067517501312,
                -0.16190476190476213,
                0.5272914683756147,
                0.7272914683756148,
                -0.08416666666666481
            ],
            "hiddenLayer": [
                0.9999684372532697,
                1,
                0.9999999999942681
            ],
            "outputLayer": [
                -1
            ],
            "weights": [
                -72.80673419637506,
                -0.34857571119923914,
                41.26648712696184,
                31.714283619151228,
                11.932226038758941,
                2.7874937405753295,
                -24.537149419007687,
                13.740317648402016,
                14.558610441559464,
                30.59094178307486,
                -21.20721940382409,
                12.794684504308975,
                -7.16446009825053,
                19.51756543099986,
                -4.814686424361486,
                9.431727491892063,
                -2.658119526872623,
                15.952426868013964,
                -32.751076598292734,
                14.139215898067716,
                -19.41684421981272,
                -25.422828981717206
            ]
        },
        "alive": false,
        "score": 116.31400014366292
    },
    {
        "width": 60,
        "height": 60,
        "x": 60,
        "y": 810.8612585746441,
        "velY": 700,
        "brain": {
            "inputLayer": [
                0.7426564343294163,
                0.5190476190476186,
                0.5881941944604449,
                0.7881941944604449,
                0.030983315504569262
            ],
            "hiddenLayer": [
                -0.15401650669004946,
                1,
                0.9999999999989011
            ],
            "outputLayer": [
                -0.9999999018486622
            ],
            "weights": [
                -72.20273968396913,
                -1.1364113777522513,
                50.96273297660059,
                21.972703507379705,
                10.220733853224077,
                6.445015637490794,
                -6.285579538736338,
                43.48891454983795,
                16.583921854852253,
                61.499754022897676,
                -31.17423699919195,
                8.503411349253138,
                -15.920361937343005,
                3.9178605182549564,
                -17.933425304589655,
                6.7198203313965825,
                -20.85706468099826,
                29.80276229785534,
                -36.774894706503474,
                23.676324310490266,
                -14.082388245528595,
                -23.672828090033626
            ]
        },
        "alive": false,
        "score": 119.58500014179566
    },
    {
        "width": 60,
        "height": 60,
        "x": 60,
        "y": 808.4580583205044,
        "velY": 700,
        "brain": {
            "inputLayer": [
                0.6343920173450744,
                1,
                0.4771708635589239,
                0.6771708635589239,
                0.0675000000000019
            ],
            "hiddenLayer": [
                -0.6493805917347123,
                1,
                1
            ],
            "outputLayer": [
                -0.9999752348159137
            ],
            "weights": [
                -82.00644782915735,
                0.18754352304866773,
                54.630944628754285,
                27.38458929527563,
                8.388291464833163,
                5.883914785275693,
                -25.35391720238948,
                49.40700015080692,
                16.465313426871987,
                63.07861737553232,
                -20.83484669388314,
                10.063469020919937,
                -7.481548951071288,
                12.167962931696342,
                -22.612111253298405,
                10.23644660969216,
                -28.83805183809419,
                31.48241786078869,
                -37.79424933804577,
                28.077562221854386,
                -24.365724734538784,
                -33.90429276488376
            ]
        },
        "alive": false,
        "score": 126.66833337706035
    },
    {
        "width": 60,
        "height": 60,
        "x": 60,
        "y": 811.1718645740098,
        "velY": 700,
        "brain": {
            "inputLayer": [
                0.49004121960640057,
                1,
                0.683602914672023,
                0.883602914672023,
                0.07916666666666858
            ],
            "hiddenLayer": [
                1,
                1,
                0.9999999999999822
            ],
            "outputLayer": [
                -1
            ],
            "weights": [
                -80.46076036225236,
                -1.0123601252013759,
                55.6145811981501,
                25.42874450665709,
                11.166964595826373,
                6.41515481294281,
                -28.49634929273607,
                48.00297444406036,
                17.2472579091819,
                63.68642004553063,
                -21.777706552833994,
                10.11012744944266,
                -6.961536726300472,
                6.042822332546686,
                -24.86524418560966,
                7.870405902598343,
                -31.733538730850615,
                26.101165213567562,
                -41.81429611717787,
                28.88850423054672,
                -25.69840665732051,
                -34.427274012469695
            ]
        },
        "alive": false,
        "score": 135.64166691868036
    },
    {
        "width": 60,
        "height": 60,
        "x": 60,
        "y": 800.1145722874126,
        "velY": 700,
        "brain": {
            "inputLayer": [
                0.5355598820259323,
                -0.18809523809523832,
                0.4963822810214343,
                0.6963822810214343,
                -0.05535000631576424
            ],
            "hiddenLayer": [
                0.9999999450600073,
                1,
                1
            ],
            "outputLayer": [
                -1
            ],
            "weights": [
                -86.0973400697,
                -0.8340939668697145,
                52.96921022357331,
                32.03706401950236,
                9.164882575565414,
                6.562733103389846,
                -22.138147913379818,
                50.59516150405221,
                9.561544388409388,
                66.7298184006011,
                -17.09923995608368,
                10.396236157756682,
                -6.233832139606614,
                4.123729999122179,
                -26.072405604917286,
                5.595392932205401,
                -27.261218766194972,
                33.91018580431094,
                -46.404074623812534,
                24.314627109565194,
                -25.925754538171294,
                -30.63869620687497
            ]
        },
        "alive": false,
        "score": 159.43066690497534
    },
    {
        "width": 60,
        "height": 60,
        "x": 60,
        "y": 805.4119325060705,
        "velY": 700,
        "brain": {
            "inputLayer": [
                0.45329269341036527,
                1,
                0.5366439352000858,
                0.7366439352000859,
                0.07916666666666858
            ],
            "hiddenLayer": [
                1,
                1,
                1
            ],
            "outputLayer": [
                -1
            ],
            "weights": [
                -131.79937920570626,
                0.360869707990471,
                79.56439366508287,
                51.640868467154924,
                10.701888815212929,
                9.831932816699254,
                -38.41372605638705,
                72.41583427054228,
                9.132544193767767,
                12.778864158826062,
                -13.43707933819699,
                36.485535676639856,
                10.387481762574287,
                -22.588906628879457,
                3.371368464972525,
                23.45970821311518,
                -21.64024005497306,
                70.20230785949786,
                -27.985576677429954,
                29.236812779542472,
                -34.3222994281461,
                0.4028468509814864
            ]
        },
        "alive": false,
        "score": 216.63533390443777
    }
]