[
    {
        "width": 60,
        "height": 60,
        "x": 60,
        "y": 810.3073303751772,
        "velY": 700,
        "brain": {
            "inputLayer": [
                0.4898221826144091,
                0.23626014406102494,
                0.33025148468045457,
                0.5302514846804546,
                0.020437248508133603
            ],
            "hiddenLayer": [
                0.27299401064242085,
                0.13669583118562048,
                0.791481029898216
            ],
            "outputLayer": [
                -0.028597565149586276
            ],
            "weights": [
                0.40884287154003696,
                0.023370894582963597,
                -0.675169321586949,
                0.6293495246018881,
                0.3399544004888906,
                -0.04337141127009536,
                0.32841064612052095,
                0.5417428846405259,
                -0.17704599214737504,
                0.7798330184303377,
                -0.20555971561849162,
                -0.5021349829885087,
                0.11259909157920811,
                0.6956771180633989,
                0.845955520662065,
                -0.5942094679745193,
                -0.1908780691652585,
                0.8954730630045602,
                -0.5401715760384107,
                0.671474342004045,
                0.6977031818966344,
                -0.5251483361642091
            ]
        },
        "alive": false,
        "score": 2.600827004343317
    },
    {
        "width": 60,
        "height": 60,
        "x": 60,
        "y": 805.2897641945357,
        "velY": 700,
        "brain": {
            "inputLayer": [
                0.2961944790521181,
                -0.12794514196030676,
                0.2577452262828323,
                0.4577452262828324,
                -0.023224201706091616
            ],
            "hiddenLayer": [
                -0.05832037130631279,
                -0.3676964639873423,
                0.5090629013688385
            ],
            "outputLayer": [
                -0.0818942456981267
            ],
            "weights": [
                0.037750604863320936,
                -0.38727287079272776,
                -0.4448304747498737,
                0.550415691161833,
                0.5702124595482785,
                -0.24317232532353383,
                -0.00716462477755031,
                0.7752857327664529,
                -0.6538313333466814,
                0.6836752785959248,
                -0.5549053194403701,
                -0.4417550743456593,
                0.22411257111910632,
                0.23269314284022036,
                1.1238451786575834,
                -0.8873253593095933,
                -0.37828171647419095,
                0.632573043134004,
                -0.16523976224767467,
                0.4927176885173845,
                0.9123022681288964,
                -0.37496359713061334
            ]
        },
        "alive": false,
        "score": 2.7359280048758507
    },
    {
        "width": 60,
        "height": 60,
        "x": 60,
        "y": 809.6919976426877,
        "velY": 700,
        "brain": {
            "inputLayer": [
                0.2851660800491425,
                -0.6618065714745263,
                0.2439792835607822,
                0.4439792835607822,
                -0.07831070198544343
            ],
            "hiddenLayer": [
                0.19340607351196384,
                -0.7689654928335934,
                -0.613513504720681
            ],
            "outputLayer": [
                -0.7455215076731337
            ],
            "weights": [
                1.1388812194074245,
                -0.8063652251903066,
                -0.5928287515402635,
                1.2107054104688744,
                0.5602822656194162,
                -1.01156899131478,
                -0.08853319785300173,
                0.6579293023398773,
                -0.24118246571665058,
                0.26104544735601354,
                -1.0564829772391118,
                -0.696912121412282,
                0.8586230924033418,
                0.8219781403605255,
                -0.43397013527513706,
                0.3790708086667127,
                -0.6439227398513747,
                -0.528241779209186,
                -0.6617511551501865,
                0.49413053560369713,
                1.0329673062114246,
                0.17889925301267784
            ]
        },
        "alive": false,
        "score": 2.8913100056505328
    },
    {
        "width": 60,
        "height": 60,
        "x": 60,
        "y": 808.6672409428352,
        "velY": 700,
        "brain": {
            "inputLayer": [
                0.3835814298928041,
                -0.4257418567764002,
                0.6247674759235646,
                0.8247674759235646,
                0.07833109853407329
            ],
            "hiddenLayer": [
                0.6808923744016196,
                0.6095307840031174,
                0.799570435881716
            ],
            "outputLayer": [
                -0.8291185095863813
            ],
            "weights": [
                -1.745840689748011,
                -0.6379273973350068,
                1.004379040297811,
                -0.003794064263519248,
                0.6736196775345027,
                0.5517160053060319,
                -1.674071916356203,
                0.0482024892421451,
                0.4117241978450332,
                -0.4066303890671543,
                -0.8088338852521801,
                1.5123396167626524,
                -0.004549404098936449,
                -0.6772607106959889,
                0.8072569592079897,
                0.29548414017665525,
                0.4811601313881735,
                0.02508362387902152,
                -0.6929231801889668,
                -0.28696086598948045,
                -0.9189107232058473,
                0.19614185689567165
            ]
        },
        "alive": false,
        "score": 4.24509900753141
    },
    {
        "width": 60,
        "height": 60,
        "x": 60,
        "y": 800.3232646818296,
        "velY": 700,
        "brain": {
            "inputLayer": [
                0.7324475630947052,
                0.8922718596545246,
                0.572471162265484,
                0.772471162265484,
                0.07261699867767962
            ],
            "hiddenLayer": [
                -0.28890297034378404,
                -0.2722950416587939,
                0.8147379601221789
            ],
            "outputLayer": [
                -0.07188970096230182
            ],
            "weights": [
                -1.236120217044033,
                0.348753249543009,
                0.558228966017484,
                0.9945000560972179,
                0.4428747643105164,
                -0.8231112228292843,
                -1.8761240003289912,
                0.10320468824049156,
                -0.5065443620688888,
                -0.4553047356112798,
                -0.16434618549872115,
                1.656360968259679,
                -0.5521976390947563,
                -0.18972543291098742,
                1.6376437023166555,
                0.48520625133368034,
                0.997519821885597,
                0.32995650732910686,
                -0.9680473252076278,
                -1.5190384055179493,
                -0.9599860299843119,
                0.016824754718158808
            ]
        },
        "alive": false,
        "score": 4.252835006771526
    },
    {
        "width": 60,
        "height": 60,
        "x": 60,
        "y": 802.6630981646418,
        "velY": 700,
        "brain": {
            "inputLayer": [
                0.4410739755956057,
                0.2721154308577212,
                0.28048243947122564,
                0.48048243947122565,
                -0.00775420185824883
            ],
            "hiddenLayer": [
                0.09637800223992177,
                -0.1985969266423509,
                0.010149441668467348
            ],
            "outputLayer": [
                -0.21288555249742766
            ],
            "weights": [
                -1.0902169609753858,
                -0.47121648755138956,
                0.9608234947965024,
                1.5584134398148222,
                1.5608254351830069,
                -0.3004117608593764,
                -2.778081217306469,
                0.2097561236718044,
                0.47047497585019027,
                -0.6958985502652213,
                -0.030488804990804974,
                1.1691606514891155,
                -1.7621030905162502,
                0.03101795650401118,
                1.3624253081580744,
                0.9591459697521898,
                0.03374519347167215,
                -0.0638003612062743,
                -0.9488001662719685,
                -1.2682338432593963,
                -0.7385772916556173,
                -0.3691196785301798
            ]
        },
        "alive": false,
        "score": 4.490467008432926
    },
    {
        "width": 60,
        "height": 60,
        "x": 60,
        "y": 806.5085657346733,
        "velY": 700,
        "brain": {
            "inputLayer": [
                0.30991829470457694,
                0.387717573187399,
                0.14867044860700532,
                0.3486704486070053,
                -0.08392050185797217
            ],
            "hiddenLayer": [
                -0.6262543954016253,
                0.9892536750721247,
                0.431241616551878
            ],
            "outputLayer": [
                -0.37057849954106714
            ],
            "weights": [
                -2.4919201881131725,
                -0.8607073121046529,
                0.8641085680108427,
                -0.16280748231017572,
                0.5346043486363783,
                0.3439363360678145,
                -1.9643316125626686,
                -0.15291268444314987,
                0.36627859174293453,
                0.46783766264970117,
                -2.3251680055359922,
                2.8658394927183917,
                1.5287820987398326,
                -1.724146624059052,
                0.2893770760841021,
                1.4041368450156944,
                0.17210415670337498,
                0.1379455774948759,
                -2.2386713302282364,
                -1.8373085053063505,
                -0.565282449532923,
                0.27026622412542944
            ]
        },
        "alive": false,
        "score": 4.709316008926681
    },
    {
        "width": 60,
        "height": 60,
        "x": 60,
        "y": 802.1989902681592,
        "velY": 594.0238665170589,
        "brain": {
            "inputLayer": [
                0.8772903185850456,
                -0.45000000000000023,
                0.6722911510632599,
                0.8722911510632599,
                0.08027126610752669
            ],
            "hiddenLayer": [
                0.9618756785844886,
                0.9978890508961085,
                0.12038934009941207
            ],
            "outputLayer": [
                -0.8529424674008768
            ],
            "weights": [
                -0.6747084172122673,
                -1.0091927472470892,
                0.7664690734930113,
                -0.7358801183624522,
                0.9610310579229528,
                2.1576485048818252,
                -0.42572880531846247,
                -2.035347809454387,
                0.571064712283406,
                -0.843434833260136,
                -3.285030685364376,
                3.499428190589664,
                -0.11805045782246992,
                0.030202381053120453,
                -0.8846876983810192,
                2.0053267387436144,
                1.3562492233661194,
                -1.0251972295458374,
                -2.2843947510363867,
                -1.291942230770604,
                -1.1060995243188216,
                2.3528282050941556
            ]
        },
        "alive": false,
        "score": 6.0452373403737445
    },
    {
        "width": 60,
        "height": 60,
        "x": 60,
        "y": 800.2374866147283,
        "velY": 700,
        "brain": {
            "inputLayer": [
                0.6539307122601735,
                -0.007504569510298497,
                0.2862187004758092,
                0.4862187004758092,
                0.07630459968796025
            ],
            "hiddenLayer": [
                0.4982822000866132,
                0.6341979343904164,
                0.7706687290351228
            ],
            "outputLayer": [
                -0.9757162705578722
            ],
            "weights": [
                -1.5131653656046908,
                -1.4911827881734967,
                2.0852581540590815,
                -1.1970376299495893,
                1.7079122846110786,
                1.3801936194984439,
                -2.6871834671536856,
                -0.3439192108380986,
                0.6496066028231706,
                1.0404874538148627,
                -2.1665416754065028,
                1.976541423035795,
                1.23081961181365,
                -0.7917072545019999,
                -0.4936715181003202,
                1.4853422554970064,
                1.9587633343454802,
                -0.519205475063155,
                -1.8933108785555905,
                -2.48928670141575,
                -0.3670071735233684,
                0.6055046839128546
            ]
        },
        "alive": false,
        "score": 6.05551467649885
    },
    {
        "width": 60,
        "height": 60,
        "x": 60,
        "y": 808.9255941764444,
        "velY": 700,
        "brain": {
            "inputLayer": [
                0.4600894600034182,
                -0.4474417138967464,
                0.46731375732072583,
                0.667313757320726,
                0.07569034878105642
            ],
            "hiddenLayer": [
                -0.06089913289788073,
                0.9990688310886666,
                0.9780510849356793
            ],
            "outputLayer": [
                -0.5377547871089101
            ],
            "weights": [
                -1.9430026945781445,
                0.418978492057003,
                1.2880503418347367,
                -0.7097959425067324,
                1.5343609757832761,
                0.776045563659197,
                -0.8204685861898755,
                -2.9304697358629985,
                1.7242406278122635,
                0.7348363222467011,
                -2.4516188198954283,
                1.7915863550797595,
                0.3927523706852647,
                -1.2101851090670561,
                0.10510646832395598,
                2.2229712504653376,
                3.2505498080153408,
                -0.2501859565193889,
                -2.2995783955760007,
                -1.6384100042580232,
                0.18676080488614355,
                0.7131888361172836
            ]
        },
        "alive": false,
        "score": 7.854902348619711
    },
    {
        "width": 60,
        "height": 60,
        "x": 60,
        "y": 802.3860849163012,
        "velY": 700,
        "brain": {
            "inputLayer": [
                0.7837985783675987,
                0.4404761904761902,
                0.6248506047315144,
                0.8248506047315144,
                -0.043333333333331475
            ],
            "hiddenLayer": [
                0.7390884200906026,
                -0.1564074329131156,
                -0.9379949380885665
            ],
            "outputLayer": [
                -0.9998408293090615
            ],
            "weights": [
                -5.579480154300851,
                -3.3215273129588745,
                2.573240626765057,
                3.7678778525016785,
                1.4455738208231124,
                2.131523947034796,
                -2.4411946527460078,
                -3.787248783223774,
                6.3636937495484975,
                -0.35208645940310923,
                -0.7456133587651494,
                -0.29435315629344627,
                -0.043797852497125644,
                1.6913456518278218,
                2.690474110128169,
                -2.6288481467310785,
                2.7854880717750703,
                -1.8237982805504946,
                -3.928850361839938,
                -3.122720001255903,
                0.8599735882984592,
                -1.4972984375318985
            ]
        },
        "alive": false,
        "score": 8.189333386985764
    },
    {
        "width": 60,
        "height": 60,
        "x": 60,
        "y": 808.2095033242695,
        "velY": 700,
        "brain": {
            "inputLayer": [
                0.22691118471089208,
                -0.34523809523809557,
                0.1882957913464686,
                0.38829579134646863,
                -0.06946668361717503
            ],
            "hiddenLayer": [
                0.9999503273433361,
                -0.6381126240357278,
                -0.9878591589060284
            ],
            "outputLayer": [
                -0.9959369927699585
            ],
            "weights": [
                -9.669331809210613,
                -7.440977418927181,
                5.562366862723318,
                7.2186162971114065,
                4.538132270832621,
                1.3916802103076413,
                -4.271555339774871,
                -1.8160128874122463,
                6.398646194248787,
                -0.7334462963272028,
                0.06196969094776672,
                -1.328415843103105,
                1.6833225587265492,
                5.835943133142746,
                0.45422864147409037,
                -0.3741793143411709,
                7.599464267319856,
                -0.3286215699554993,
                -3.332186748257385,
                -4.99429801153756,
                -1.5101490296351678,
                -4.445190676476267
            ]
        },
        "alive": false,
        "score": 8.274666715096686
    },
    {
        "width": 60,
        "height": 60,
        "x": 60,
        "y": 810.899542805235,
        "velY": 700,
        "brain": {
            "inputLayer": [
                0.553798039617655,
                -0.4761904761904764,
                0.6746456225184617,
                0.8746456225184618,
                0.07916666666666858
            ],
            "hiddenLayer": [
                0.9999999997010176,
                0.9128393013480808,
                -0.9645554462560207
            ],
            "outputLayer": [
                -0.9999949087050797
            ],
            "weights": [
                -10.234152908388507,
                -7.539673957960396,
                5.423080124782832,
                6.717673509194508,
                3.7844356410881947,
                3.5553825417980836,
                -4.113830259113344,
                -2.2116179717267164,
                7.672605116485889,
                -0.8301700823499356,
                1.3326249058180537,
                -1.7863093623535886,
                1.5403184142362305,
                5.828186362605325,
                0.6910278068725006,
                -0.37315405949754954,
                8.490004459761115,
                -0.8971709789882614,
                -3.502005379826078,
                -2.2788638962154697,
                -0.2132614880999526,
                -1.0640221190979526
            ]
        },
        "alive": false,
        "score": 9.635666676724975
    },
    {
        "width": 60,
        "height": 60,
        "x": 60,
        "y": 810.5066630736462,
        "velY": 700,
        "brain": {
            "inputLayer": [
                0.5293833288420575,
                0.17857142857142827,
                0.1804114409285085,
                0.3804114409285085,
                0.0756666770311514
            ],
            "hiddenLayer": [
                0.1470128528191493,
                -0.931841847241557,
                0.3181107409132872
            ],
            "outputLayer": [
                0.49020710036171766
            ],
            "weights": [
                -9.010940305194975,
                -11.018248224524275,
                5.45813716760798,
                7.474252929944489,
                3.2089951499965164,
                2.815056104355949,
                -6.4991923042185515,
                -0.8354064136030181,
                8.496695215368973,
                0.6326289300250052,
                1.3823326620829746,
                0.03938775903091485,
                3.0769645638095984,
                3.2646170850691067,
                0.8900563212882886,
                0.49176297717271766,
                11.136556420247517,
                -3.0726321714424296,
                -2.5421693266208463,
                -3.3358375409363115,
                0.022299531786869053,
                -2.2055022624132667
            ]
        },
        "alive": false,
        "score": 9.65999997038725
    },
    {
        "width": 60,
        "height": 60,
        "x": 60,
        "y": 811.8090414332771,
        "velY": 700,
        "brain": {
            "inputLayer": [
                0.49734810734715196,
                -0.34523809523809557,
                0.45906530988919286,
                0.6590653098891929,
                0.015000000000001847
            ],
            "hiddenLayer": [
                0.9999999889012717,
                0.6150932665162209,
                0.9734940921974212
            ],
            "outputLayer": [
                -0.9997353859310659
            ],
            "weights": [
                -10.146414100936914,
                -9.102385518826186,
                4.210869679181913,
                9.54677513562221,
                3.8849867789570522,
                3.125313544166354,
                -8.40760326767068,
                -0.15477066062092937,
                7.697316675525505,
                1.0714230471612625,
                0.5490806711633505,
                0.5972012717502824,
                7.801231582897978,
                0.3717588628632953,
                3.94264960112526,
                -1.9015618355827402,
                10.148061944478584,
                -2.305386961958617,
                -0.9632991555226567,
                -3.106578456158065,
                1.227639799591119,
                -2.7860919580770664
            ]
        },
        "alive": false,
        "score": 9.82500003855677
    },
    {
        "width": 60,
        "height": 60,
        "x": 60,
        "y": 809.9301107393317,
        "velY": 700,
        "brain": {
            "inputLayer": [
                0.445641805090831,
                0.4666666666666664,
                0.2880474668346821,
                0.4880474668346821,
                0.026666666666668525
            ],
            "hiddenLayer": [
                -0.37965582744686804,
                -0.18749569041268332,
                -0.9690800419212166
            ],
            "outputLayer": [
                -0.9858649891829757
            ],
            "weights": [
                -9.947399581262214,
                -9.259659408890581,
                2.8508696899819777,
                10.196161903899524,
                5.282748671919788,
                2.416223964339107,
                -8.674065997782124,
                0.25592576914273213,
                8.063254324140333,
                0.5079534104740693,
                1.450957796568508,
                0.9471564932164835,
                7.832410201293198,
                -0.4698294934221534,
                2.8449444156060464,
                -3.3260597850448086,
                10.950637000139505,
                -4.836376553429833,
                -0.8737728210554474,
                -3.7183829574144576,
                1.3741635007978867,
                -2.1698168525409067
            ]
        },
        "alive": false,
        "score": 16.996666704666403
    },
    {
        "width": 60,
        "height": 60,
        "x": 60,
        "y": 803.050454271327,
        "velY": 700,
        "brain": {
            "inputLayer": [
                0.5552366789502697,
                0.4666666666666664,
                0.398775835787322,
                0.598775835787322,
                0.04416666666666855
            ],
            "hiddenLayer": [
                0.032842038786717855,
                -0.4774501031765295,
                -0.8830053275108054
            ],
            "outputLayer": [
                -0.13085143685859424
            ],
            "weights": [
                -9.453104229701141,
                -10.4630333801059,
                2.533687970094034,
                10.13661309915505,
                5.771276077875635,
                2.8294824180519047,
                -9.398112039198665,
                -0.24312048796251884,
                9.890211371088682,
                -0.3198894447276974,
                1.421275612177901,
                0.9967482515647657,
                8.47692926360637,
                -0.843745230246308,
                2.4598584280284905,
                -2.782942863842429,
                11.22624040613822,
                -5.51260103637397,
                0.21244552272263295,
                -6.024534093666151,
                -0.23243895832591943,
                -3.2202424284996547
            ]
        },
        "alive": false,
        "score": 20.536333317119297
    },
    {
        "width": 60,
        "height": 60,
        "x": 60,
        "y": 811.4898667535177,
        "velY": 700,
        "brain": {
            "inputLayer": [
                0.6402303889974525,
                -0.31904761904761936,
                0.6009858384930934,
                0.8009858384930933,
                -0.025833333333331474
            ],
            "hiddenLayer": [
                0.9999999808873741,
                0.3924191160395071,
                -0.8358417318602215
            ],
            "outputLayer": [
                -0.999993452123373
            ],
            "weights": [
                -9.869977426111149,
                -10.629298194601754,
                3.9706415789417715,
                10.208089036041594,
                5.547468331597404,
                1.7413146123011487,
                -9.254522197127912,
                -0.39969158571334584,
                9.491561130745374,
                -0.44053681917796683,
                1.1835484895419741,
                0.891306916856496,
                8.826336029100771,
                -1.1960717975318194,
                2.6451898901464883,
                -2.1706978967735946,
                11.625055160984944,
                -6.790415549033755,
                0.03867014253208212,
                -5.917952583257637,
                -0.2009928213479797,
                -4.199107431481934
            ]
        },
        "alive": false,
        "score": 20.742666771892445
    },
    {
        "width": 60,
        "height": 60,
        "x": 60,
        "y": 800.5066131116571,
        "velY": 700,
        "brain": {
            "inputLayer": [
                0.67061590527846,
                0.5190476190476186,
                0.5135052293790338,
                0.7135052293790338,
                -0.0316666666666648
            ],
            "hiddenLayer": [
                -0.973177652269164,
                -0.3536140660160015,
                -0.9588471702256732
            ],
            "outputLayer": [
                -0.06143979374685492
            ],
            "weights": [
                -9.826143564423507,
                -9.466732006288796,
                2.9441242131047725,
                9.279600279157139,
                4.611620565957437,
                1.3673384495003336,
                -11.381336059871716,
                -0.0872780546204821,
                11.387183831497174,
                0.2006141824900587,
                1.7550179151634735,
                1.3732959881938471,
                9.047325436066043,
                -2.832378791096919,
                2.3617559302053013,
                -1.4013327575160668,
                13.067328270763436,
                -6.327667265745005,
                -1.1294055808656887,
                -6.212354271546247,
                0.21320129966840584,
                -3.152977940214547
            ]
        },
        "alive": false,
        "score": 22.565000035010925
    },
    {
        "width": 60,
        "height": 60,
        "x": 60,
        "y": 802.684778747857,
        "velY": 700,
        "brain": {
            "inputLayer": [
                0.1461337512125986,
                -0.34523809523809557,
                0.10561901585139291,
                0.3056190158513929,
                -0.003666660866943037
            ],
            "hiddenLayer": [
                0.9999938565036101,
                0.5743473130634391,
                -0.9999893519084507
            ],
            "outputLayer": [
                -0.9999999703931258
            ],
            "weights": [
                -9.036254758058195,
                -9.080256164517401,
                4.256277733000296,
                9.544802719950727,
                4.899990645447845,
                1.1836313080634868,
                -10.076332463567597,
                -0.17472305146712808,
                9.805617600611505,
                1.196877708383478,
                2.0465812711768416,
                0.6722132272729517,
                8.181850267418952,
                -1.9409605806804635,
                1.593559375184509,
                -2.5309017817618624,
                12.980807060861745,
                -7.284596116930082,
                -1.7882409503089347,
                -7.5899599032206675,
                0.6645517163257382,
                -2.2021555348382447
            ]
        },
        "alive": false,
        "score": 27.88333342461091
    },
    {
        "width": 60,
        "height": 60,
        "x": 60,
        "y": 807.4253513453336,
        "velY": 700,
        "brain": {
            "inputLayer": [
                0.40596571695944456,
                0.4404761904761902,
                0.2504093831393941,
                0.45040938313939405,
                0.07916666666666858
            ],
            "hiddenLayer": [
                -0.995037094744848,
                0.059907806825640335,
                -0.9999001626667059
            ],
            "outputLayer": [
                -0.7138707867351503
            ],
            "weights": [
                -9.453602166614937,
                -11.34982003003489,
                1.1651726818672585,
                8.505931127585653,
                3.7590702687198716,
                1.4184361347684904,
                -14.883657267373655,
                0.20047488743884445,
                12.992406482856467,
                1.5673781363010229,
                2.0617028295272366,
                1.8913293559315125,
                10.01743774597643,
                -4.627844579737277,
                3.868440679103637,
                -5.365703845620748,
                11.673981832754668,
                -6.456934471491828,
                -1.275837546376928,
                -9.099528687287304,
                -0.5423659677411972,
                -2.1617178010418545
            ]
        },
        "alive": false,
        "score": 36.63366669964443
    },
    {
        "width": 60,
        "height": 60,
        "x": 60,
        "y": 801.1038658737651,
        "velY": 700,
        "brain": {
            "inputLayer": [
                0.3150395609606678,
                0.47138093045098756,
                0.15853725215756104,
                0.358537252157561,
                0.008116671551069671
            ],
            "hiddenLayer": [
                -0.9999999881239632,
                0.3042527144370224,
                -0.9999989216454311
            ],
            "outputLayer": [
                -0.23781236175400738
            ],
            "weights": [
                -9.946696904435498,
                -12.774226347891275,
                2.6392794163362883,
                5.677524590876704,
                4.313549611137192,
                -2.804855288179862,
                -16.75917927835635,
                -0.03538455169732324,
                12.480238453442698,
                3.9742559918406917,
                3.09324446836942,
                2.182075214165545,
                8.444734148292982,
                -2.571700559608021,
                3.4975440947557,
                -3.5577450479232366,
                14.525427991908012,
                -8.061590194424467,
                -3.9058386753567405,
                -5.420746599038537,
                1.135977771879611,
                -1.3630392682151935
            ]
        },
        "alive": false,
        "score": 36.84500006055902
    },
    {
        "width": 60,
        "height": 60,
        "x": 60,
        "y": 809.6647073632491,
        "velY": 700,
        "brain": {
            "inputLayer": [
                0.39758435642628354,
                -0.16190476190476213,
                0.35923307544102706,
                0.5592330754410271,
                -0.08999999999999815
            ],
            "hiddenLayer": [
                -0.9228804112352552,
                0.9452943502342878,
                -0.99999145012147
            ],
            "outputLayer": [
                -0.9997886330632033
            ],
            "weights": [
                -10.364909322675244,
                -13.082889967584052,
                3.106709923805284,
                5.198095532996591,
                4.42206361496823,
                -3.2303616877583483,
                -17.084357314565626,
                -0.016116747592794578,
                12.530037269343106,
                4.089044808534894,
                3.09324446836942,
                2.0659236997879074,
                8.444734148292982,
                -2.571700559608021,
                3.7831361761511513,
                -3.812177869127631,
                14.128817251307158,
                -7.910771089077221,
                -3.9058386753567405,
                -5.725490132646696,
                1.2130869812220333,
                -1.5567501134518462
            ]
        },
        "alive": false,
        "score": 38.920666740091995
    },
    {
        "width": 60,
        "height": 60,
        "x": 60,
        "y": 808.2602090470548,
        "velY": 700,
        "brain": {
            "inputLayer": [
                0.6045960946421514,
                1,
                0.6219312661074793,
                0.8219312661074792,
                0.07916666666666858
            ],
            "hiddenLayer": [
                -0.9999999999999788,
                0.9931794332310981,
                -0.9999988782590382
            ],
            "outputLayer": [
                -0.9995326916845719
            ],
            "weights": [
                -12.053012130692045,
                -14.0380777878488,
                3.298497523740234,
                5.060962930300275,
                5.987698382541221,
                -1.4490835776997926,
                -14.768769149253405,
                -0.08797377967162845,
                12.73071526029527,
                1.8881928201642513,
                2.6983547844992017,
                2.1726714883568636,
                8.173122120696945,
                -3.2890712261610044,
                4.5433312989241115,
                -5.539752950597814,
                14.439888838984027,
                -8.264755620489414,
                -4.118990442180665,
                -5.32810324094757,
                1.147851210658899,
                -1.8600953685185189
            ]
        },
        "alive": false,
        "score": 42.039000020896594
    },
    {
        "width": 60,
        "height": 60,
        "x": 60,
        "y": 807.8411904559867,
        "velY": 700,
        "brain": {
            "inputLayer": [
                0.355548015847761,
                0.41428571428571404,
                0.19393123868365747,
                0.3939312386836575,
                0.06166666666666856
            ],
            "hiddenLayer": [
                -0.9999999998533451,
                0.14515450236779145,
                -0.9995392694082236
            ],
            "outputLayer": [
                -0.06038894162541446
            ],
            "weights": [
                -10.280233072495367,
                -13.652376138169888,
                2.569384715402466,
                5.969053171660255,
                4.668793473800767,
                -5.494531449393988,
                -16.275499831150295,
                -0.4964368013805822,
                12.001646920684536,
                4.79638147447219,
                3.8016848773688046,
                1.6871994113223665,
                7.978554547148965,
                -1.3768460599684713,
                6.215347656982101,
                -3.3776059297674665,
                14.353180518998794,
                -7.214076903166967,
                -3.3820302686882115,
                -5.86267856421817,
                1.3510212506260058,
                -1.2410997968125868
            ]
        },
        "alive": false,
        "score": 43.89033348101096
    },
    {
        "width": 60,
        "height": 60,
        "x": 60,
        "y": 805.1390283676537,
        "velY": 700,
        "brain": {
            "inputLayer": [
                0.18508697990401127,
                -0.16190476190476213,
                0.14625972744283489,
                0.3462597274428349,
                -0.07833333333333148
            ],
            "hiddenLayer": [
                -0.32186491215634006,
                0.9644582815647317,
                -0.9999996788696892
            ],
            "outputLayer": [
                -0.9999989113883893
            ],
            "weights": [
                -7.625068511933683,
                -11.622509364625365,
                1.990840093014194,
                7.02336859747949,
                4.607300186438514,
                -3.1663491124093275,
                -18.58156532685512,
                -0.33317091094060225,
                13.199074100685209,
                5.5597376353912145,
                3.8796976923067534,
                1.839699599498062,
                7.9590856345260725,
                -2.889213274586254,
                4.634201363043422,
                -3.5458533268710326,
                16.396540789587704,
                -7.92879856850189,
                -3.40711404733469,
                -6.456543009624717,
                1.6787596482867735,
                -0.4026820092055341
            ]
        },
        "alive": false,
        "score": 47.8866667113402
    },
    {
        "width": 60,
        "height": 60,
        "x": 60,
        "y": 803.5164545076243,
        "velY": 700,
        "brain": {
            "inputLayer": [
                0.42137473480119647,
                1,
                0.5486355289734272,
                0.7486355289734271,
                0.07916666666666858
            ],
            "hiddenLayer": [
                -0.9999999991579912,
                0.9999636514225814,
                -0.999992346079751
            ],
            "outputLayer": [
                -0.9999426455359178
            ],
            "weights": [
                -7.775942619237885,
                -11.36055073425089,
                2.7319779202321812,
                8.127262796872724,
                3.735477529487474,
                -4.035995534879815,
                -18.91786659362966,
                -0.665871472290535,
                13.68961700640742,
                5.951168749514283,
                4.297829358434738,
                1.789013282679724,
                7.183975686279082,
                -0.9478366045147508,
                3.496427128301131,
                -4.427767333674598,
                17.434523627362594,
                -8.29974054470215,
                -2.4217439933913782,
                -5.980393925444493,
                1.5775600548386197,
                -0.0937086549316426
            ]
        },
        "alive": false,
        "score": 52.84100011512387
    },
    {
        "width": 60,
        "height": 60,
        "x": 60,
        "y": 811.2931929128167,
        "velY": 700,
        "brain": {
            "inputLayer": [
                0.6689602411410207,
                0.4666666666666664,
                0.5107111605795582,
                0.7107111605795582,
                0.06166666666666856
            ],
            "hiddenLayer": [
                -0.9999882562225986,
                -0.36321227551606994,
                -0.9999883518587993
            ],
            "outputLayer": [
                -0.18849089900612162
            ],
            "weights": [
                -9.361721568116877,
                -10.449207158309584,
                4.853542285613136,
                6.638721799784735,
                2.0052289054536008,
                -2.2043756542019413,
                -19.377965897495134,
                -0.3421811368062728,
                14.131013478026286,
                4.887001668434483,
                4.614734344169982,
                1.767503662760223,
                4.941707094202737,
                0.3422482711865562,
                2.7370673801924954,
                -4.740209545439992,
                14.76432806373465,
                -8.431672007801886,
                -2.2131312710390887,
                -7.77043468358335,
                5.233103806527217,
                0.006848293250557358
            ]
        },
        "alive": false,
        "score": 54.68433359148218
    },
    {
        "width": 60,
        "height": 60,
        "x": 60,
        "y": 811.4623454372597,
        "velY": 700,
        "brain": {
            "inputLayer": [
                0.6213418206854636,
                -0.29285714285714315,
                0.580971768512501,
                0.7809717685125009,
                -0.07833333333333148
            ],
            "hiddenLayer": [
                0.989689208204935,
                0.7440405394951247,
                -0.9999999991623134
            ],
            "outputLayer": [
                -0.999999998652739
            ],
            "weights": [
                -11.483235598431197,
                -9.305034338268408,
                5.3385441966143485,
                6.706635234223532,
                1.9221317619764242,
                -1.147429193753608,
                -19.235029878453144,
                -0.11135057824388861,
                14.012033969132334,
                4.685748206861963,
                5.528933063550146,
                1.5114555980334252,
                6.814995328492323,
                0.7817653408993666,
                0.708105133784644,
                -6.645509039680421,
                16.600089179585428,
                -8.723351978838398,
                -0.9393825088548644,
                -7.073785988075586,
                5.674467749010563,
                1.3081783350535645
            ]
        },
        "alive": false,
        "score": 56.8850000130157
    },
    {
        "width": 60,
        "height": 60,
        "x": 60,
        "y": 800.9168590444241,
        "velY": 700,
        "brain": {
            "inputLayer": [
                0.5451738515833078,
                0.49285714285714255,
                0.3889473142557031,
                0.5889473142557031,
                0.0675000000000019
            ],
            "hiddenLayer": [
                -0.9995941362582861,
                -0.2325596893377656,
                -0.9998816467315713
            ],
            "outputLayer": [
                -0.2912958130479025
            ],
            "weights": [
                -13.165092821162911,
                -9.673814813253623,
                7.385759994349762,
                8.147782850922056,
                3.822388904175817,
                -0.23544314977142178,
                -17.9461901750745,
                -0.5971750664600834,
                15.122832532733378,
                3.7656393020405012,
                4.253397158276709,
                1.454369242454217,
                5.925499676962161,
                1.0234869236351456,
                4.521241367444436,
                -8.375054470285233,
                17.714391892503023,
                -6.624102929036225,
                -2.807552533259175,
                -7.45051069822814,
                5.700064519282374,
                0.8603067523037164
            ]
        },
        "alive": false,
        "score": 67.26933355848143
    },
    {
        "width": 60,
        "height": 60,
        "x": 60,
        "y": 803.2974674302989,
        "velY": 700,
        "brain": {
            "inputLayer": [
                0.2927503065100956,
                0.17857142857142827,
                0.13116015919859447,
                0.3311601591985945,
                0.0675000000000019
            ],
            "hiddenLayer": [
                -0.9999592371867339,
                -0.22403982691305058,
                -0.999994560341101
            ],
            "outputLayer": [
                -0.9793615517947905
            ],
            "weights": [
                -16.78697272042097,
                -13.214350011999066,
                3.1556586022358495,
                6.943148551743818,
                2.8747337277013885,
                -1.0335721877691095,
                -19.213691859418482,
                -0.7100342085658493,
                15.535185773466614,
                4.048770524212903,
                4.594261025141873,
                1.8351990515388492,
                7.6141036705693335,
                1.9518409375033818,
                2.0902900397166517,
                -7.413824610352601,
                19.49543701560276,
                -8.119984973704634,
                -2.033740739201635,
                -7.607656865633202,
                4.497193539124021,
                -1.5225938242586197
            ]
        },
        "alive": false,
        "score": 72.67100014120965
    },
    {
        "width": 60,
        "height": 60,
        "x": 60,
        "y": 805.4000884713562,
        "velY": 700,
        "brain": {
            "inputLayer": [
                0.32815636058919506,
                -0.0047619047619050295,
                0.15350363412674642,
                0.3535036341267464,
                0.07916666666666858
            ],
            "hiddenLayer": [
                0.6174844195461318,
                -0.7763366121833214,
                -0.9999981728419159
            ],
            "outputLayer": [
                -0.9845914927760308
            ],
            "weights": [
                -14.756676621171858,
                -13.277717102812641,
                0.12296220631151966,
                8.750709404932714,
                4.318684247153486,
                2.0460205166284107,
                -20.85343275329382,
                0.47846482621416064,
                17.143231297389853,
                2.724629082788978,
                4.239063706894266,
                1.8790747459354156,
                5.122127873406846,
                2.073849752165506,
                5.018854026909639,
                -8.038873010718088,
                21.14532728757536,
                -8.226577464407624,
                -1.8197624998913071,
                -6.407339325727753,
                5.487378440778376,
                -0.792333000225621
            ]
        },
        "alive": false,
        "score": 78.03700025741254
    },
    {
        "width": 60,
        "height": 60,
        "x": 60,
        "y": 809.9404883539909,
        "velY": 700,
        "brain": {
            "inputLayer": [
                0.7039707493313775,
                -0.08333333333333359,
                0.6664557179263758,
                0.8664557179263759,
                -0.08101667500625345
            ],
            "hiddenLayer": [
                -0.9999999993835333,
                0.9817962084249897,
                -0.9999999975876156
            ],
            "outputLayer": [
                -0.9999999671273393
            ],
            "weights": [
                -18.801319621398846,
                -16.48496646570256,
                0.5733531139980599,
                4.55158819834635,
                0.9231183524820132,
                -3.339326276701909,
                -20.564909725676344,
                -0.31242898681479114,
                17.42763571283219,
                3.249594276984893,
                3.51990441859751,
                2.6509175938318927,
                9.519198681409904,
                1.9772253233195884,
                -0.37306516232958065,
                -6.089511421302176,
                20.81951977081613,
                -9.592715673521102,
                -5.07925276036622,
                -10.255098704897145,
                3.5888947576527856,
                -0.38382681833457344
            ]
        },
        "alive": false,
        "score": 96.50066699317925
    },
    {
        "width": 60,
        "height": 60,
        "x": 60,
        "y": 806.4587680805156,
        "velY": 700,
        "brain": {
            "inputLayer": [
                0.7355560989895333,
                -0.18809523809523832,
                0.6979727178206246,
                0.8979727178206247,
                -0.05499999999999814
            ],
            "hiddenLayer": [
                -0.999999061395884,
                0.9496844226014738,
                -0.9999999973350657
            ],
            "outputLayer": [
                -1
            ],
            "weights": [
                -19.19437415224789,
                -12.666444787344533,
                2.3492040946478694,
                5.131555647503342,
                2.1588728437118974,
                -1.6789076856067713,
                -23.8787784777794,
                -0.6471796284842315,
                17.554541689964033,
                6.167561772848519,
                4.305565384030211,
                1.7169164970834268,
                5.136520758670276,
                1.4401411198739964,
                4.1186672439037135,
                -3.6862741128209136,
                17.43678436335062,
                -12.330952933567016,
                -1.5923204790590286,
                -12.079735201332747,
                8.659040179160428,
                -2.2287892677347134
            ]
        },
        "alive": false,
        "score": 98.22433361479956
    },
    {
        "width": 60,
        "height": 60,
        "x": 60,
        "y": 805.5815282235558,
        "velY": 700,
        "brain": {
            "inputLayer": [
                0.6307963547238887,
                1,
                0.6859445368427884,
                0.8859445368427885,
                0.07916666666666858
            ],
            "hiddenLayer": [
                -1,
                0.9999999014404316,
                -0.999999999999995
            ],
            "outputLayer": [
                -0.9999998394129133
            ],
            "weights": [
                -21.36855719022619,
                -12.781436913676135,
                -3.4787227144502917,
                3.177733341997348,
                8.671159955379874,
                -0.09141790436789599,
                -36.42992853548069,
                -0.2855933700698705,
                22.23809751253172,
                13.777543286188678,
                9.711412082176281,
                3.449274589781015,
                7.453784576264374,
                -3.5066078362723445,
                -11.248223184887166,
                -0.36216523005217605,
                30.34681955682647,
                -12.371758623164176,
                -14.004835811704137,
                -15.489883767346726,
                5.9450654221477635,
                -0.73867642153129
            ]
        },
        "alive": false,
        "score": 99.64566689985041
    },
    {
        "width": 60,
        "height": 60,
        "x": 60,
        "y": 811.6529679851229,
        "velY": 700,
        "brain": {
            "inputLayer": [
                0.6198960710925147,
                -0.13571428571428595,
                0.582102075942173,
                0.7821020759421731,
                -0.07249999999999815
            ],
            "hiddenLayer": [
                -0.9999999999219036,
                0.99998362420052,
                -0.9999999999999875
            ],
            "outputLayer": [
                -0.999999986140946
            ],
            "weights": [
                -22.075594076940266,
                -12.965215151187047,
                -4.222434758827311,
                3.893222215343156,
                7.880011263215681,
                -0.07381103376185538,
                -36.1295613565159,
                -2.170910707933064,
                22.570370626455205,
                14.891146166995513,
                9.500965256292124,
                3.8625360669234783,
                7.6353057629193195,
                -1.760535144540986,
                -12.095037273060711,
                -0.6989502003943291,
                30.47970363108099,
                -11.52736519798947,
                -13.771468186326167,
                -16.991440125300823,
                6.202154002041727,
                0.028110557024577876
            ]
        },
        "alive": false,
        "score": 130.67800035319001
    },
    {
        "width": 60,
        "height": 60,
        "x": 60,
        "y": 810.7147854228427,
        "velY": 700,
        "brain": {
            "inputLayer": [
                0.593133065111887,
                -0.18809523809523832,
                0.5552276218934493,
                0.7552276218934493,
                -0.06083333333333148
            ],
            "hiddenLayer": [
                -0.9999999940242136,
                0.9999385875389316,
                -0.9999999999999953
            ],
            "outputLayer": [
                -0.9877512734775346
            ],
            "weights": [
                -17.450817707452792,
                -14.129514987521658,
                -4.431209349885605,
                3.6350765331159143,
                9.509565331742326,
                -1.827867963509332,
                -36.70272356948882,
                -1.2229458858683968,
                20.95454855273339,
                14.963754651689515,
                11.44556500032315,
                4.495762635152444,
                8.016264652801034,
                -2.2796376319357785,
                -13.07374485617632,
                -0.6867264840214715,
                30.65754579697319,
                -12.38384700506896,
                -14.537606118765952,
                -11.88453365845512,
                3.9876824228633816,
                -1.210788454638041
            ]
        },
        "alive": false,
        "score": 157.64966718709573
    },
    {
        "width": 60,
        "height": 60,
        "x": 60,
        "y": 811.4371022228322,
        "velY": 700,
        "brain": {
            "inputLayer": [
                0.2713970722229843,
                0.41428571428571404,
                0.11294488550619629,
                0.3129448855061963,
                0.038333333333335204
            ],
            "hiddenLayer": [
                -0.9999999998209633,
                0.7278924655053984,
                -0.9999999999971945
            ],
            "outputLayer": [
                -0.5834739753282752
            ],
            "weights": [
                -18.293842766459115,
                -9.56625322665205,
                -7.052695628501288,
                2.685919324855507,
                14.857982766453205,
                -3.25376627860348,
                -37.725128269403015,
                -1.9017933666084177,
                22.69140721013734,
                16.109682522288427,
                10.084236564641685,
                3.9597218320368732,
                10.48031157181568,
                0.6643815099002048,
                -11.349003508977221,
                0.40496806847061584,
                35.94854472644909,
                -16.988809714575282,
                -13.857940434557129,
                -12.629525546214776,
                4.737730248613709,
                -0.5949874390170418
            ]
        },
        "alive": false,
        "score": 160.96166690451625
    },
    {
        "width": 60,
        "height": 60,
        "x": 60,
        "y": 806.2776733137315,
        "velY": 700,
        "brain": {
            "inputLayer": [
                0.32126723053105294,
                0.33571428571428547,
                0.1601099000505539,
                0.3601099000505539,
                0.024683311041114226
            ],
            "hiddenLayer": [
                -0.9999999998505656,
                0.3688206863241228,
                -0.999999999977155
            ],
            "outputLayer": [
                -0.5298271898102764
            ],
            "weights": [
                -17.728692551466093,
                -10.534083754366444,
                -9.957015040915877,
                3.4721750228568977,
                13.806485546637106,
                -2.4235030132476147,
                -38.36369644717451,
                -1.3437269532339928,
                22.95463998512027,
                15.409293540996089,
                12.596739585403506,
                3.6279307525273015,
                8.867649244798464,
                1.5856228881356567,
                -8.814341189938089,
                -2.3212036868425607,
                35.00704690157766,
                -14.595858939901593,
                -11.310546467007805,
                -12.398875090627303,
                7.58572332329598,
                0.25823360248213234
            ]
        },
        "alive": false,
        "score": 186.2016670932131
    },
    {
        "width": 60,
        "height": 60,
        "x": 60,
        "y": 811.3055555555242,
        "velY": 700,
        "brain": {
            "inputLayer": [
                0.5809027777777387,
                -0.31904761904761936,
                0.5395831827681449,
                0.7395831827681448,
                -0.043333333333331475
            ],
            "hiddenLayer": [
                -1,
                0.9999990804894474,
                -1
            ],
            "outputLayer": [
                -0.9999450080108878
            ],
            "weights": [
                -17.299463352740457,
                -5.994721106979913,
                -13.602479689414864,
                2.036628494322331,
                19.134448475633796,
                -4.877912258665412,
                -48.257392778355204,
                -2.81684090178719,
                30.947790281841023,
                18.585531833084143,
                20.005506610281987,
                4.85288396897208,
                17.066673928375018,
                3.517386826830119,
                -9.692310490201304,
                -7.28200535778396,
                41.992583358915255,
                -17.634483570866657,
                -6.284276500638665,
                -14.042431771410817,
                3.9257724368333458,
                6.433193435424373
            ]
        },
        "alive": false,
        "score": 211.60000000006053
    },
    {
        "width": 60,
        "height": 60,
        "x": 60,
        "y": 811.513888888847,
        "velY": 700,
        "brain": {
            "inputLayer": [
                0.27840277777772504,
                0.30952380952380926,
                0.11669691707393838,
                0.3166969170739384,
                0.05000000000000188
            ],
            "hiddenLayer": [
                -0.9999999981190811,
                -0.4691971755880672,
                -0.9999999999921454
            ],
            "outputLayer": [
                -0.9821444754008188
            ],
            "weights": [
                -14.219605057383506,
                -4.779572613817087,
                -13.850514332807734,
                4.35690066661329,
                19.800221658822103,
                -5.7076729857875845,
                -52.167349192378815,
                -3.797621801929976,
                39.93012606729099,
                14.801465721766231,
                24.973121456302444,
                4.5939916622034165,
                19.32479351077882,
                4.479473123897112,
                -13.252054554855924,
                -2.155557425929394,
                42.07660188190319,
                -19.772813943863266,
                -8.219458096002123,
                -9.16067458883628,
                10.15016594541246,
                -4.722265600913988
            ]
        },
        "alive": false,
        "score": 259.9333333334256
    },
    {
        "width": 60,
        "height": 60,
        "x": 60,
        "y": 811.2361111110667,
        "velY": 700,
        "brain": {
            "inputLayer": [
                0.6821874999999441,
                1,
                0.533527426173019,
                0.733527426173019,
                0.07333333333333523
            ],
            "hiddenLayer": [
                -1,
                -0.5115815327695314,
                -0.9999976431546808
            ],
            "outputLayer": [
                -0.6401874044538373
            ],
            "weights": [
                -23.306246184443086,
                -10.824291294337847,
                -4.479734109584345,
                -1.7902839428426618,
                12.28118451115582,
                -0.5103725273354311,
                -54.64935369344407,
                -3.3016984896345374,
                40.62940650389563,
                14.892717371252434,
                25.626865269652395,
                5.537512087663195,
                21.33960833748398,
                5.444698998918058,
                -12.586970277832304,
                -5.690206147530357,
                46.591422970965326,
                -19.355267569606806,
                -3.639953727287862,
                -9.724744458507258,
                7.932789806609319,
                -1.440673521571188
            ]
        },
        "alive": false,
        "score": 312.0666666667115
    },
    {
        "width": 60,
        "height": 60,
        "x": 60,
        "y": 809.9583333332841,
        "velY": 700,
        "brain": {
            "inputLayer": [
                0.7692361111110493,
                1,
                0.6195806078290286,
                0.8195806078290286,
                0.06166666666666856
            ],
            "hiddenLayer": [
                -1,
                0.4524408454218389,
                -0.999999956111349
            ],
            "outputLayer": [
                -0.922574012481582
            ],
            "weights": [
                -38.2447215517962,
                -10.120503212581118,
                -0.9945634332463384,
                -5.642112071114153,
                25.969016560470006,
                -2.3018200890858918,
                -76.30601070582662,
                -3.077140924311285,
                42.54295312519131,
                33.56735338486775,
                30.177086476857585,
                6.5313840053439325,
                12.198311355655074,
                3.7649982659710863,
                -13.473087411623046,
                0.5207473012331802,
                38.07665554102375,
                -16.39294959562411,
                -13.456757941129771,
                -30.781775558181973,
                12.906092980127212,
                11.77021817050335
            ]
        },
        "alive": false,
        "score": 315.70000000004154
    },
    {
        "width": 60,
        "height": 60,
        "x": 60,
        "y": 806.4861111110545,
        "velY": 700,
        "brain": {
            "inputLayer": [
                0.7205729166665955,
                1,
                0.5684846096878392,
                0.7684846096878393,
                0.07916666666666858
            ],
            "hiddenLayer": [
                -1,
                -0.41879625484777827,
                -0.9999999999775547
            ],
            "outputLayer": [
                -0.9999916981908038
            ],
            "weights": [
                -50.986634181717356,
                -24.35831993273979,
                9.118855702365915,
                -13.522183207752056,
                57.91020084277083,
                -14.046325407774573,
                -107.53955410700344,
                -3.849299514490898,
                45.17953581484423,
                61.96767039991621,
                45.460109498422376,
                3.9891612011180086,
                25.884232275257215,
                6.923744609940177,
                -0.22619988283656034,
                -24.324109124355893,
                63.53836904782269,
                -24.390591899896986,
                -18.415785323167402,
                -22.44922918245348,
                33.79070640068553,
                -0.22282208963137018
            ]
        },
        "alive": false,
        "score": 391.24999999997283
    }
]